function [y1] = test_generated_trainOld_log(x1)
%MYNEURALNETWORKFUNCTION neural network simulation function.
%
% Generated by Neural Network Toolbox function genFunction, 20-Jan-2017 19:42:53.
%
% [y1] = myNeuralNetworkFunction(x1) takes these arguments:
%   x = Qx22 matrix, input #1
% and returns:
%   y = Qx7 matrix, output #1
% where Q is the number of samples.

%#ok<*RPMT0>

% ===== NEURAL NETWORK CONSTANTS =====

% Input 1
x1_step1.keep = [1 2 3 4 5 6 7 9 10 11 12 13 14 15 16 17 18 19 20 21 22];
x1_step2.xoffset = [0;0;0;0;0;0;0;0;0;3.09104245335832;0;0;0;0;0;0;0;0;0;4.60517018598809;0];
x1_step2.gain = [0.468616429408656;0.544884635197819;0.910239226626837;1.24266986911922;1.82047845325368;2.88539008177793;1.82047845325368;2.88539008177793;1.24266986911922;3.84707522595347;0.868588963806504;0.910239226626837;0.910239226626837;0.868588963806504;0.868588963806504;0.868588963806504;0.910239226626837;0.910239226626837;0.868588963806504;2.19230286514486;2.88539008177793];
x1_step2.ymin = -1;

% Layer 1
b1 = [1.8052345159687833;-1.6726922922595786;1.5479489650078724;-1.3041155880519797;-1.4876053238627378;1.3547116961147236;-1.288398701674546;-1.0884563788303643;-1.031166310197869;-0.99993945813210972;0.86314033456893524;0.90399490283817452;0.85883678445423239;-0.38227263289415708;-0.64111156017795323;0.55207919405071137;-0.77545743730655103;0.47929561542930454;-0.30602244398535788;0.49474933596977705;0.097437996512021285;-0.2776203366973351;0.17157415338288817;0.87309946612366751;0.057585184508364848;-0.16559859236554367;-0.026104977075716452;0.22976303740525789;0.17341012408461098;0.308802889392158;0.3395806777082464;-0.46323485409920268;0.50674461214321764;-0.78227162506554038;-0.76199415302978701;0.85961197690976532;-0.69976600099197173;-0.77818721875856822;-0.9629576487430167;-1.000800960572541;1.2115070794700495;-1.0653235725270536;1.3836847339936149;-1.082263854208146;1.449694091833601;1.598204744000552;1.4526688552174125;-1.2163476525801464;1.4539070238021718;-1.9189061996574761];
IW1_1 = [-0.34771129613393015 0.054575755226441633 -0.45809210275746465 -0.32319385278887758 -0.045287092433992419 -0.50701996519819881 0.24119589122664015 0.2700819044762397 0.064211872755654459 -0.44641904094949214 -0.25243548578837322 0.51210294731501038 0.21443632629472398 -0.3467492152215858 0.44004474211957945 -0.19947763997410561 0.19163306715840242 -0.4255106539252716 0.47289189248073937 0.35007011913852515 -0.14463679949342056;0.23512758533884048 -1.0590615187998578 -0.13928569666032706 0.48865279204504597 0.23617006310758393 -0.42862242710592313 0.266843796837825 0.4978052592599943 0.50632554108701167 -0.82163820383435149 0.68692304797902415 -0.01291606747753735 0.42914945433124113 0.89822828472783123 -0.58165466397838628 0.12863171176510124 0.36331905410942444 -0.038664633995654424 0.35676308089971531 0.52555319711964787 0.061024997975830365;-0.47057916416878631 -0.097080550374868319 -0.56176491766920456 0.22587894291812696 -0.25238569934792671 -0.38487829920752953 0.22344173543856144 -0.26661811622696574 -0.35015016049700004 -0.03809110468922236 -0.2573371719051934 -0.39158756927505817 -0.44068297525984601 0.14678842660955538 0.32607523868617272 -0.88560485572358993 0.27862837725897072 0.0088901644269559488 0.43258772451497596 -0.46729316886254174 0.29187584080162421;0.062672027094661159 0.16661499003254979 -0.13585985919513949 0.61463544196246622 -0.41147017786099038 0.059374394769562966 -0.30723101209133019 -0.35010371517727029 0.41600330786312895 -0.37473801745898605 -0.22352973378611807 -0.12774498711444437 -0.24212844024528229 0.1141053829266071 -0.62064871567797619 -0.23354497182224393 0.010380928340721143 -0.10369884012507791 -0.5449556821236079 -0.2075568660809235 0.87002544805404436;-0.05178301314748876 -0.12178694806097612 -0.19951772581631061 -0.45050599634455835 -0.20900602866283313 -0.2788600204033006 -0.52934400547236471 0.13507864904559932 0.24333120984667544 0.76010882936787982 0.14477431351571957 -0.13928694600864455 0.017284691805543553 0.16603329285013646 -0.32761403213534929 -0.12917571188637514 0.35099897010886449 0.19334658184542644 0.053517605164310464 -1.1524527663978432 -0.010173124613340519;-0.69813913828525398 -0.3921130585623907 0.2166245019761022 -0.45713406900745879 -0.41444433191327745 -0.050215375465888529 -0.34056871578353398 -0.18035117901879655 0.39555647805841815 -0.074854866234462886 0.58492649062817392 0.13499114683599911 -0.34147925184964456 -0.16446713319613551 -0.62307422417582159 -0.11327048902464051 0.20002317652504828 -0.72669780339237167 -0.14122123561153668 -0.48289116088689998 0.064105993215428189;0.16499119593336167 -0.29349197542081507 0.24237082782115604 0.52440313858497078 0.42475780126629997 -0.51308398118470133 0.22086539095415186 -0.4640473520400365 -0.22346247688480883 0.16758666578207176 -0.36208965759312134 -0.019726390183973118 -0.12124793293351577 0.26137166339973184 0.39382763995367198 0.17474171232246527 0.1971117025239971 0.21790011897726561 -0.32917228296816281 0.10125502044317311 -0.31742715091674889;0.31931722147545721 -0.43789684629233605 -0.48188001457312951 0.071238204712083669 -0.088753348266939494 0.21814529559522894 -0.48925511448177439 -0.67988575635321102 -0.11394989458383556 -0.45165119159677103 0.33686773087051258 0.83570313284735687 -0.48161590862448495 0.19225430842671085 0.28983086057015583 0.57507377313884589 -0.12024004502496666 -0.45802539577982826 -0.34976900242216036 0.19193987640982305 -0.77601636571690247;0.42078396161833498 0.68143367013506206 0.28822324390254783 0.35225721046854475 0.39303246546264364 0.0070272537734726911 0.40326680979657514 -0.60517614513621387 0.12837781651392083 0.3779021066946166 -0.27235827242614685 0.77754366481397363 0.15812412703868339 0.14090751075925784 0.51017669791486797 0.96446428494588643 0.18377390684696263 -0.11689829599529852 -0.16556101723645014 -0.16500121013122046 0.095856801347260434;0.21501318176294842 -0.56380829358821882 -0.31518117188516143 -0.21872458402197434 -0.082982766944489181 0.166270026501108 0.75599789769720316 -0.41896361495794704 0.061886273895910823 -0.035792541886328737 -0.40201407510145515 -0.21427735231449008 -0.0059022147486175632 0.22453069235806944 -0.18566793554711233 0.1394350341095664 0.11229346399137588 -0.78849827790999383 0.3593300241634369 0.23877852150057588 0.15791297162072612;-0.58762039215318129 0.42993195922643612 -0.28886133445295009 -0.10693537362799926 0.58507535966204038 0.54740444182507109 0.18065900679114302 0.56808309358628883 -0.13590433345195438 -1.1358507355753822 0.27713876539756654 -0.64343481042169559 -0.28669141765848782 -0.27410612212916874 -0.3090322050058204 -0.070161259272104079 0.18055182608104187 -0.24545912431976785 0.35889522000260055 0.070522110342308986 0.76796167751815858;-0.39305154626447669 -0.26862017250389525 -0.69740554038857194 0.11056192545583207 -0.2234603785691896 0.59538977960871031 -0.059562740873889471 -0.31546117778457688 -0.42770875977331746 -1.4059357610648322 0.37670887830993605 0.33475832568145442 -0.2741815420508838 0.30546788379395712 0.0056133018549087838 0.22937198343701615 0.4269484356523795 -0.29110801721872526 0.20642506373818292 -0.72150877773233646 0.25345736380059958;-0.76696198366261337 0.8242268188949653 -0.3607739595824449 0.10050827721359178 -0.093483849101679908 -0.18640441450539388 0.4277062815440722 -0.043817824127586967 -0.10368217772496227 0.25324694716106688 0.66791475053857219 1.1859786733064261 -0.62549479881763248 -0.22961530370857916 -0.54115478239800785 0.8287501477185798 0.40890339074844212 0.23245024807523323 0.79467210570279179 0.17175047321268816 0.5445514403012266;0.088874665531848224 -0.3484406256848353 0.4125861156369876 -0.79345129332850073 0.039470794789567373 -0.70553562544073289 -0.17754110654056568 0.094664268208667385 0.44743819843806248 0.47178414904405619 0.29901189215209256 -0.3425886037463447 -0.39206393004899442 -0.75225018320706549 -0.47630577077107583 0.33090541092253534 -0.17026058386761944 -0.064946423662638614 0.32663038402910249 -1.4066654654183552 -0.22393767139379744;0.37000230921678634 0.19442905486298689 0.14464792518070757 -0.84684293096607233 -0.33314354874270485 -0.096167320865246347 -0.15083965011202402 -0.068371704789712842 0.32554366384209293 -0.11663227113832231 -0.14173482017178191 -0.49421538621123151 -0.24265399324285744 -0.4489707542652242 -0.0045000574777250973 -0.16272305015928346 -0.25905486710737635 -0.12471299596623897 -0.31606074116153515 -0.023572058230739566 0.12209477301409509;-0.41588895830383832 0.47398953405929634 -0.42855903686605784 -0.34030799303804238 -0.022201710396784993 0.39533120746466871 0.50708751973215549 0.46479203740263225 0.53389809014604706 -0.17515118278488817 0.41621781648373457 0.4128347659612116 0.24176255758299448 -0.047689993322896231 0.17426117605383382 0.12694345474050805 0.26582039864409124 0.21078554921518977 0.48451373620076488 -0.5017360854718147 0.59541058394126678;0.29230617880277032 -0.77135350913253942 -0.30427399303478464 0.30288790600320575 0.5698977258226291 0.55281716277966164 0.22082376202995835 0.20062488397795838 -0.46450076618835756 0.26447701349352309 0.039434577354441072 0.083862519604439703 0.26116607048501433 0.72726194552609913 0.64536557602041444 0.10159295533837777 -0.013657660892483717 0.55385973414496947 0.68164783846264099 0.10864218035360404 -0.46379252812479771;-0.37644279993690594 -0.058686088073340553 0.11745447607424445 0.26490210230477257 0.20023163714234818 -0.5163368392122476 0.17052117314559159 -0.21011584562088265 -0.11807978842504221 0.54717710794329277 -0.027565833044615032 -0.14459357807318654 0.38009591409326271 0.30524013101409114 -0.65958165124825285 -0.2721621470330009 0.58882358842987126 -0.34341911276349479 -0.035940673649084987 -0.8856991802032077 0.15107166331186628;0.34791837864171482 -0.020175460364047187 0.35536068691819628 0.32149944702527117 -0.22081270187332111 -0.29488736181580377 -0.30521451184359116 0.092275316644094371 0.11471656547039652 0.4495646577383251 -0.005448662982899935 -0.097032986466959945 0.088056471720160776 -0.38944132545290744 -0.30174798871480041 -0.31570507243205703 0.18438656321654467 0.068981844792717711 -0.46159289529696496 -0.5595159149242287 -0.29939265887511701;-0.418504476267888 -0.44176482536202583 0.10750813054039218 -0.30692364692337909 -0.061428801718101396 0.026829339341263275 0.20487920813258254 -0.19587009882881357 -0.41780526677499652 0.14114077898098301 0.57154559979372066 -0.058579700965292386 0.056783050875866284 -0.023363871286117444 0.29058738178157079 -0.55574866559559721 0.28772956960941143 0.29343376724850317 0.46469141891906396 0.43886452020003919 -0.28230934272445385;-0.52901153851992444 -0.17162843569508099 0.65754225130670274 -0.23206692693018521 0.22116526336911968 0.22569182655403675 0.29632697295726923 -0.48205321604114448 -0.29852421588367362 -0.71573386740288691 -0.083291597465254649 -0.06475320102651308 -0.27792958763950432 -0.25839830263455621 0.59037359613799523 0.35889632247561709 0.14750508044892519 -0.14738256637977831 0.13271545043248686 0.28940630946800749 0.24267767112664923;-0.067974792747450608 0.61009272884983301 0.65829187049471471 -0.3131143198237008 -0.029254008494971409 -0.40300571234355376 -0.32133008810655728 0.51223150522644856 -0.10357466447476996 -0.040867615232866993 -0.033600933774898235 0.44050566436765232 -0.042583730315073398 -0.1287286587151131 -0.12158736211247492 0.6365105357560773 0.48712450860334133 -0.54647623347504737 0.3501561900116863 -0.14934760635216687 -0.25171026661130591;-0.12026485824232813 -0.8526521446980091 -0.46357747790048887 0.034814295476574345 0.20709551059338527 -0.022188192908990136 0.20870467153156744 0.036119407185124533 0.30215471770075053 -0.56162229654871032 0.32424629521794357 -0.29495342107651462 -0.23373234303771656 0.10677763312154252 0.56888917079081547 -0.080355290232686019 -0.020628265980978708 0.062905871887910442 -0.059755536125387726 0.35142296261035044 0.39209424572954249;-0.60149798935050403 0.041556027760154157 0.30054529350188042 0.3113004789145869 0.47446090053763645 -1.2907860699808342 0.067765132650086241 -0.34265880811159316 1.6006946245027776 0.023189659395986342 -0.26880105815853494 -0.21087199916347421 -0.14243041035518295 0.26630708165664091 0.0073007595430559027 0.15898678135503191 0.065953578223856363 0.048707176283470537 -0.18343107970971881 0.40566658456593785 0.74017244228553003;-0.1119720074700461 -0.24471177254489485 -0.51825489083995357 0.26785137842940765 -0.10583999790826051 0.36423433493914592 0.41197364285281673 -0.18608074894510329 0.017457536557312532 0.26604204839794088 -0.31260083636289016 -0.27221838069389492 -0.35139059203879636 0.43306432185174348 -0.10777695206274306 -0.33499730864181138 0.10800835266903981 -0.20155033389864596 0.33929695749126437 -0.44956190867053641 0.26318800434353429;-0.40641524829368336 0.49052462662553448 -0.69506280582057522 -0.045920867137713511 -0.023837821658796356 0.026164381582376217 0.57027185600784291 -0.35951043802349952 -0.4125865929898454 0.22211195307763998 0.10882724959839202 -0.018537174814555427 -0.18551182434202626 0.37183957122271444 0.28886328985539089 0.27095976961887802 -0.50141179273202552 0.012796750092706921 0.13419801073124435 -0.28643135284665555 0.19014696776014525;0.22187687695884864 -0.54590841790652422 -0.47178531018883418 -0.24783033356470421 0.58220886362881907 -0.20895877317125722 0.10273051486779002 0.46211208153786104 0.22121865175699534 0.22243978702813744 0.7491792076005428 0.66729686290438572 -0.85341071993997697 0.33818152168478333 0.3011700429283809 -0.15675080927405374 0.5252538059554237 -0.57627180967120739 0.8856087899450017 -0.093887043206867388 -0.87317087773422275;0.08553457723285976 0.21970914070282083 0.19945905864619864 -0.049400960736023847 0.19048421796482332 -0.55768097146649787 0.040569454043293346 -0.34827590409353554 0.24809231805492013 0.94332553280186593 -0.40985218482630476 0.13899026081932467 0.055215789387473402 0.054157424503738297 -0.11788737146649247 0.14748005774508516 0.036758396838971169 -0.2265306544627177 0.21916114206193235 -0.44774925885862266 -0.48405104234781382;0.8966722148702071 -0.18308892944878188 0.28177380939752311 -0.54730959986203231 0.35674050471740198 -0.67240747274929469 0.083094588822832383 0.025435113521278335 -0.04120397640045087 0.81634446784194648 -0.17066271482466014 -0.043041932379875983 -0.27829151776444866 0.14433678155344556 0.34856559437185086 0.073500497570273285 -0.39303770196181775 -0.60516826077963892 -0.062257381682321769 -0.94088995393869401 0.50497406871009032;0.18369134464038572 -0.17120020956263104 0.11295513942056859 0.109764359891552 -0.15432242854516248 0.50411254070697498 -0.27605537539258385 0.083524026435973675 -0.82605748567137616 -0.083608500724766818 -0.20506421495462879 -0.22625700150094977 -0.14546828418233071 0.43767646442929964 -0.19104882102707954 -0.24374985571795837 -0.028216592150731773 -0.20432381170179129 -0.22624026158171062 0.58388496264126677 -0.50709142911698113;0.363579961716539 -0.16084277986418252 -0.39320587792422157 -0.020323795454083624 0.11952622788883502 -0.38370572540666381 -0.22544568654893909 0.43229866987237786 -0.19426231487767728 -0.013183026224759736 0.40134779471605564 -0.36502595854938275 0.054271374232234049 0.12825138533243863 -0.069845361337025749 -0.53795581091272426 -0.16791954056295569 0.56589509124603177 -0.053391535227185566 0.40806916549447692 -0.61504263087842259;-0.28468573258283225 0.53217543007879164 -0.69479018294561612 0.40713947469134032 0.14700216569419317 0.50717664037539267 -0.086165902240155856 -0.4208321502154217 -0.67942608699672924 0.41978388140789868 -0.78874054480226663 0.22081167355287198 -0.27661865859564627 -0.82901177451707442 0.62789509321304071 0.1703731398677267 0.091145032607346216 -0.45766460369406831 -0.21377815799715438 0.18040757723181872 0.42993509925246337;0.78370079213427402 -0.49218960944217888 -0.5597324991789504 -0.23399446588510908 0.14723416617400115 -0.23489590301435395 0.29676245334131468 -0.21380960046993513 0.63836452397359533 -0.15217135492559733 -0.46850286516515538 -0.35384156956429391 -0.11447378498210938 -0.14625589175832954 0.10099620826068122 -0.005597722069224112 0.25624844456548435 0.18637862825625368 0.042230198935253364 -0.7346170028978839 -0.27590720884029096;0.026403407014058008 -0.33133074825086839 1.0702136611860511 -0.24595585987431476 -0.17092435884876186 0.71258399102768599 -0.82420888893817423 -0.067947819135556906 -0.44723947721142115 0.21764447037026693 1.0574338000128283 -0.75195499840963265 0.26873476827476217 0.11942709847113309 0.42364014212801621 0.24292376581837147 0.36925593471585905 0.51175956207234208 0.11714593337441402 0.52604673935013679 -0.44804282890323249;-0.16846254188411486 -0.035351058818827462 -0.36776732020419034 -0.58347545405317047 -0.14957968229662599 -0.23877635920952051 0.097586382528677129 0.033111449635880905 0.29459571250583466 0.20283588449642759 -0.28601355658436817 0.18860343997798029 -0.57392079692136611 0.12563081485451832 -0.29004263985826945 0.099311313366732171 -0.56275017339831257 -0.25749790296267927 -0.18084142420969684 0.056118745046306429 0.21488871990245856;-0.088650290055926992 0.48838014550822828 -0.60849519094221727 -0.089237946317491587 0.31014348095636823 -0.84223437582269978 -0.30070036861883676 -0.67468278696803885 -0.49684922509638413 0.39105938197088447 0.19921636450526217 0.27437991273999035 -0.5488662904132009 0.54953359379004807 0.28239208781907538 0.10601143352240555 0.29442144480081606 -0.24096250536091873 0.05345901139054119 -0.090823968260118237 -0.29353328011232449;-0.59040554295610637 -0.13080772053469658 0.31992421611157895 -0.48845471268672824 0.14331844399910951 -0.091685398930872186 -0.18727683731204661 -0.2556726863860535 0.46699590521297557 -0.4517494929876239 -0.31836155118983234 0.057661096461290411 0.063042218782412368 -0.13729235483501312 -0.6222866561858974 -0.64310980318183664 0.42131924485927119 -0.30348185173212017 0.69174012534155049 0.54728512329509049 -0.50521120923386997;-0.52668655507932449 0.62198146366924989 -0.42249140739682023 0.17447978153490434 -0.61592764954393497 -0.16467085407236035 -0.033065306400326663 0.14650981803962837 -0.16868185789443574 -0.18909015979153182 0.8155026780574911 0.64765574723963271 -0.23434867377004651 -0.10371470861318832 -0.81216125188842958 -0.2362472096030783 -0.40042173851158547 0.33225919158698808 -0.2660719296667875 -0.31272730850102182 -0.20139669316511707;-0.65772519105637328 0.40834278595471357 -1.1112503268531884 -0.39648820382408378 0.10253935848324544 0.63906031617586656 0.29251678059326403 -0.00037954472767953717 0.21024296072045653 -0.20710220707966293 0.44541107869591362 -0.011062205143907128 0.10083686765926106 -0.16042657885895342 -0.54342573227914093 -0.018804292854779692 -0.30393676622054361 -0.50911798761029636 0.68371022182327645 -0.50077232190164112 -0.07418109723691399;-0.44760486800468641 0.61082634306263206 0.23726787142995126 -0.4001065745602575 0.44600805145377925 -0.39813626988577544 -0.061076564027723906 0.95744447764994045 -0.46135569972779195 0.69367926158263638 1.3598015581272216 0.767499171406959 0.17384562758753414 0.51735378514845676 0.51024122184560228 -0.63164263193004722 0.15927305933008765 0.18908420637410284 1.2426078200615598 -0.12748358455472902 -0.6718822631325857;-0.057617371789445829 -0.17871558899620341 0.50319981454570506 -0.23777148512532967 0.46042069519581835 0.44714029876782746 0.41862183239609058 -0.07374947316555247 0.47170325026282073 -0.23624891361903116 -0.56793292730980405 0.44869219951844752 -0.20571137258970562 -0.077398407854218115 -0.23016674540599413 -0.1571309866814439 -0.23190194010000625 -0.1490614127197524 0.25224095239403543 -0.91314875031872 -0.062582083023004817;0.3209619216722987 0.30020040320090569 0.35347855861316446 -0.2641965015402854 0.16252655972996433 -0.15856560287892829 0.23129430566088033 0.29042909064695099 -0.025811382237075409 -1.1940243602170302 -0.043948170214119037 0.53803406666736087 -0.55299649126241301 0.26600132676225802 0.71304802611958262 1.3289673640578594 -0.15756036528391645 -0.32629754545787359 0.17191366910424499 1.955404415724701 0.13663829030888899;0.68207045145677425 -0.49508199821097565 -0.16161818543694287 0.037888417730752376 -0.25061701308190959 0.32939378469450381 -0.76213675322680174 -0.061672569495779712 0.45573974793603717 -0.47903065617796864 0.055604187701774249 0.054101483295280799 0.18867166905118293 -0.54800763746841086 -0.40881713361625244 0.094247505107392451 -0.18035200727827422 0.21000688817121238 -0.60061757656294834 0.21515855771834042 -0.77417526718655472;-0.12431716498657708 0.33855607775472041 -0.039524380299227745 0.011701570187116275 -0.32288523055738799 0.3141833501245665 0.03075545014217361 -0.038171015769055044 0.26761976433144641 0.049173934294860971 -0.34150614412468583 0.013282660611757487 -0.28552556589748701 -0.2519954312711869 -0.31775953259880846 -0.17652665177208882 0.031961855642485701 0.30212970321853622 0.16440623139416438 0.45922164410965538 0.060344215635972184;0.80038534037589326 -0.038534902887692742 0.0057114382941162861 -0.23695561507303639 -0.6694667408866779 0.11976352490173792 0.28383753005836498 0.23354257601909645 -0.22784019812787157 -0.51226707949525052 -0.19892228527305464 -0.55225711739670791 0.12161380247224164 -0.6758630911745922 0.31015634202434039 0.18923063965195996 0.084129183731905408 -0.083599049390842228 -0.72101824634231215 0.055223107808604913 0.28069910279952576;0.23520739750474645 0.20943812408617624 0.36887015249834287 0.20224311595606159 0.11319247742494887 -0.58212370031296978 -0.69755994516138975 0.3200387032242748 0.51133825631841812 0.19541989883256444 0.73239725618691742 0.32862250972350449 -0.1771367292964266 0.55412788765748799 -0.84723337939909038 -0.062955019603323281 0.32534679047820259 -0.10754188425757381 -0.40330815736357878 0.1300639374653122 -0.28077490828264551;0.28058701210345266 -0.34490163523037171 0.069524252441617237 -0.05424877512605511 0.30110844028983441 -0.63358399216406736 0.41461465966275524 -0.35835140392512288 0.26604067332014109 -0.39490822615512711 0.13943786248489104 -0.26573726645506007 0.060440271864804537 0.36655008834700176 -0.16357221928450255 -1.0595339008324336 0.15292465144019934 0.69406801256023087 -0.43634380489783914 0.85008936368541477 0.22336675544071791;-0.19994892978051224 -0.048888566818780406 0.42179851249304079 0.17847411979253069 -0.3404049314796157 -0.24997647962104488 -0.22798939244691052 -0.52983406222521279 -0.055048749845339091 -0.10621787818482251 -0.47340232534022686 0.24352974437211675 -0.28709008528072893 0.28194726687171801 0.27715984357933121 -0.22768108390050451 0.14861479208896014 0.23898086580247546 -0.53973821918218057 -0.18076860359305924 0.72530360587159293;-0.17849788263916966 -0.32202756058160614 -0.42713805685313755 0.44630313534531335 0.026109787420037302 0.046628246186899022 0.43854361576794332 -0.32165861211775726 -0.10091273716204319 -0.34448433970483783 0.52516343655653308 0.46907224111831847 0.1319400776304484 0.43537442959401923 0.32889741662116723 0.37173353942296899 -0.098996339528528807 -0.11749884351241266 -0.18574903871782825 -0.30192662589289343 0.21904241029395388;-0.18566343525956097 -0.56925351407943969 -0.20234793333401496 0.67543117176162781 0.029784713735926619 -0.34975096521478916 0.39967676297399035 0.097195662123435556 0.0070945970039207329 -0.293523851476024 0.19318401346875683 -0.28128799479715605 0.32996300341169815 0.45188861571722683 -0.21783901119944934 -0.15377180861858544 -0.29819021795220024 -0.42310184334433815 -0.4219168556887678 -0.30795315604712309 0.1230121031324846];

% Layer 2
b2 = [-0.16210923532322494;0.24763595599047952;-0.48094955396952627;-0.7854091131803238;-0.55202363145635946;0.27044991128917256];
LW2_1 = [-0.075628857280020612 0.31484863250425055 0.23328973955712115 0.1127691841809618 0.96598886183501831 -0.2228632257302289 -0.22074547994174884 0.19262587338043533 0.048963765506536153 -0.31627892088646525 -0.00060235783724987835 -0.39506449426763729 -0.036541119629324187 0.26414450099663839 0.14643100945189591 0.0098272609075144013 -0.17494544891542083 0.28186440374945443 0.37142726197220155 0.12663658533023048 -0.23010006452033765 -0.025069007501187374 -0.34595089664430301 -0.1301807597904365 0.14295027078177863 0.35418844533344146 0.089259395364281582 -0.64831886630356217 -0.15235528032066964 -0.077531648375520013 0.10443822277837786 0.086997749297647281 -0.051576500909486463 -0.038291100532006489 0.056755243839993891 0.41245418326390998 0.23211295792168751 -0.4489080157013674 0.067743766753842541 0.062417855152042304 0.16062006072666221 0.36568982560228908 0.024105490717575007 0.19517434511286322 0.57406447151094298 -0.020175268748863481 -0.4429204142790808 0.054190164681843803 0.53301472039345732 0.011087477801767553;0.17212829671241325 -0.66596037150323506 -0.81101583255823773 0.10004293298267235 0.51862346803221893 0.096982671431185608 0.57218727078062614 -0.12194498279530694 -0.52527667854228743 0.30370043810170627 0.074540887693022168 0.3223165097773088 0.0075222431629529407 -0.41477427149106361 -0.57948505824328977 0.26107817403481293 -0.13279249506124283 -0.67550657579667051 -0.070859546322896177 -0.23586170462332295 0.62709464059349196 0.36799291698662617 0.33494596797952042 0.06496432625440339 -0.51674086717823087 0.064181458622492388 -0.0021236385957248971 0.33908450287041758 0.3390196065054642 0.34517502626976143 -0.36690910708309965 -0.31074773659140431 0.036196925179414439 -0.068000461566760678 0.10660300841130527 0.076318898780676839 -0.15876639938553888 0.1389258696795953 -0.068223471188371423 -0.18921058814352532 -0.15982755819825445 -0.82070287232438111 0.1515048504281323 0.40101554686883945 -1.0460826609122416 -0.022388773256678787 0.50173508231142983 -0.43517630189323447 -0.18537148823947386 0.83779764874042872;0.26260521291289141 0.49945407729825825 -0.34458325913954641 0.33221284452914063 -1.0902037796406692 0.05021769684390226 0.007426135158863395 -0.20992731972143863 0.39897930508531515 0.19624800595719966 0.031598806202016827 0.25071110873729319 0.025121355835595223 0.13263007511870431 0.50133878282255773 0.73766719840576422 0.77863372611438109 0.1823539703308486 0.48585251728920209 0.49297772738478746 -0.72446824738266991 -0.26906605693408414 0.44767359698537146 -0.15198173294684572 -0.097015392935062464 0.14735438037902077 0.1411632155346402 0.69449197474261082 -0.42162291761480225 0.55590273389110778 -0.040485265587906785 0.19292318193443694 -0.3387477413985025 0.19544283540527246 0.15407493419115895 0.017634441596805925 -0.10234309060862104 -0.15256465473068104 -0.12549709828613617 0.04565866690351314 0.27233519546909962 0.54247133480036425 0.45115933754601478 -0.48053283919464296 -0.61270931765531311 -0.18371568804949437 -0.38632928390696586 0.33334087305098598 -0.37908819649478853 -0.95152890627739217;0.27070478984389529 -0.0091614705157090602 0.57892837924947704 -0.40700075434307637 -0.86724232986445715 0.56709930157154387 0.90115340204478533 0.60478851680474666 -0.41988075214646192 0.19916568522409056 0.7100079671290862 1.1689846096478647 -0.6829712304471024 0.44465546294003766 -0.25121770301905322 -0.97690530992101854 -0.90474191852721875 -0.55848647936819074 0.17883270798616635 0.074130267229657626 0.47963312200850172 0.72696904978164445 -0.85236430884571435 -0.43639539592527887 -0.32529647081887264 0.52031367250569893 -1.0511665819009901 -0.62193464459831338 -0.33657378370127827 -0.65063226185873402 0.03017514494865875 -1.0389152284046577 0.57638372479070987 -0.81063867510381982 -0.23391149607250672 -1.1623447388849795 -0.62235567462352881 -0.4091386883251279 0.81959828937402013 1.5546363459857204 0.2529493419145169 -0.83539508333398182 -1.0732490715173517 0.85036110748666671 -0.65895530848487482 0.71992947983031019 0.85230182737346083 0.37046318252262012 0.54629367351959202 0.2700077244446345;-0.012021280440040721 -0.12813976168994828 -1.1860317035719068 0.42844924520088595 0.28099522578571384 -0.79184233000570159 -0.11592552124816459 -0.78431935951899967 -0.3294249167271498 -0.40113226163211663 -1.1451030699002289 -0.94380712354884988 0.59717695055427944 -0.67994145531237959 -0.50747231489661804 0.51392039414153501 -0.27744502052806586 0.73355987049630389 -0.082155555010209991 -0.21037809305335825 -0.063638766534102081 -0.41261998350958085 0.64950351845528254 -0.73362417057251417 0.36240543794799457 -0.088244735009502306 0.79959412298064303 0.071758679613322954 0.7618436844064912 -0.18369473459992763 0.11726489347418682 0.99503222956223314 -0.25207697528295625 0.93809192079881187 0.51140773425537034 0.56640251639296535 0.98497421598150692 0.53922055697277715 -0.9496503289876268 -1.4800885382413986 -0.6128782761165813 0.70042274557473361 1.161779518208049 -0.39325639605475382 0.2776993859722976 -0.62402142984484144 -0.88371132338597702 -0.55709321326717753 -0.57815035067089848 -0.37450144769389326;-0.36867783649720964 -0.010461302531726877 -0.26174237465722749 0.068289190520703258 0.23577312764204289 0.07392842660148638 -0.15535701322274981 0.23728478899892916 0.22424498713243846 -0.010551390926766158 0.36701047396280267 -0.42300989140464973 0.061847611849933051 0.20923719938500032 0.52834165599969107 0.28858805386135966 0.0061482623496818267 0.0013976708363040505 -0.38146580113679901 0.22364016491553182 -0.54290693507379917 -0.1590826208947172 0.050751905857145709 1.1591087955150359 -0.16938990843169416 -0.27931656986456116 0.2947157236147897 -0.21481332173063639 -0.083848521075848087 0.74167960110482245 -0.38034291806434684 0.076346271253812464 -0.11748743753147065 -0.12447824360072768 -0.35918848363245737 0.68799823935764437 -0.10832888581507685 -0.18753146500236517 -0.057058430670374208 -0.034142797214526288 0.19186259343031403 0.04894558999044063 -0.10812508123155262 0.19548240126706934 0.19887833236417365 -0.06573798272597707 -0.05516188634652211 -0.053402060002316384 0.24282301802162454 0.28592709319286569];

% Output 1
y1_step2.ymin = -1;
y1_step2.gain = [2;2;2;2;2;2];
y1_step2.xoffset = [0;0;0;0;0;0];
y1_step1.xrows = 7;
y1_step1.keep = [1 2 3 4 6 7];
y1_step1.remove = 5;
y1_step1.constants = 0;

% ===== SIMULATION ========

% Dimensions
Q = size(x1,1); % samples

% Input 1
x1 = x1';
xp1 = removeconstantrows_apply(x1,x1_step1);
xp1 = mapminmax_apply(xp1,x1_step2);

% Layer 1
a1 = tansig_apply(repmat(b1,1,Q) + IW1_1*xp1);

% Layer 2
a2 = repmat(b2,1,Q) + LW2_1*a1;

% Output 1
y1 = mapminmax_reverse(a2,y1_step2);
y1 = removeconstantrows_reverse(y1,y1_step1);
y1 = y1';
end

% ===== MODULE FUNCTIONS ========

% Map Minimum and Maximum Input Processing Function
function y = mapminmax_apply(x,settings)
y = bsxfun(@minus,x,settings.xoffset);
y = bsxfun(@times,y,settings.gain);
y = bsxfun(@plus,y,settings.ymin);
end

% Remove Constants Input Processing Function
function y = removeconstantrows_apply(x,settings)
y = x(settings.keep,:);
end

% Sigmoid Symmetric Transfer Function
function a = tansig_apply(n,~)
a = 2 ./ (1 + exp(-2*n)) - 1;
end

% Map Minimum and Maximum Output Reverse-Processing Function
function x = mapminmax_reverse(y,settings)
x = bsxfun(@minus,y,settings.ymin);
x = bsxfun(@rdivide,x,settings.gain);
x = bsxfun(@plus,x,settings.xoffset);
end

% Remove Constants Output Reverse-Processing Function
function x = removeconstantrows_reverse(y,settings)
Q = size(y,2);
x = nan(settings.xrows,Q,'like',y);
x(settings.keep,:) = y;
x(settings.remove,:) = repmat(settings.constants,1,Q);
end
