function [y1] = test_generated_trainOld(x1)
%MYNEURALNETWORKFUNCTION neural network simulation function.
%
% Generated by Neural Network Toolbox function genFunction, 20-Jan-2017 19:35:13.
%
% [y1] = myNeuralNetworkFunction(x1) takes these arguments:
%   x = Qx22 matrix, input #1
% and returns:
%   y = Qx7 matrix, output #1
% where Q is the number of samples.

%#ok<*RPMT0>

% ===== NEURAL NETWORK CONSTANTS =====

% Input 1
x1_step1.keep = [1 2 3 4 5 6 7 9 10 11 12 13 14 15 16 17 18 19 20 21 22];
x1_step2.xoffset = [0;0;0;0;0;0;0;0;0;0.0274219677438575;0;0;0;0;0;0;0;0;0;0.0179776040494844;0];
x1_step2.gain = [41.310152577157;20.4331475101027;10.2774023955472;9.86154146165801;5.91607978309962;2;6;6.32455532033676;7.90569415042095;102.107916767833;28.0818908300811;31.5505546702431;31.0523751104485;28.3078316607495;27.1720626315766;28.0836493003436;31.234996398271;31.0030240460507;28.1144047258059;73.9174729149071;24.4948974278318];
x1_step2.ymin = -1;

% Layer 1
b1 = [-1.6787472629121201;-2.1507288871423311;1.3921283478949444;-1.5983726002981036;-1.0745491735401809;1.4597274133238758;1.4449792043629204;-1.4506735848138603;-1.030318360427642;-1.1349250838416394;0.96965265494702413;-1.0054692092286519;-1.0270818437266653;0.75455675146758738;-0.70463743710392401;0.6524459270052877;0.80111939626631135;-0.55376210706209505;-0.45015881796879065;-0.4756055894339512;-0.36123187351723668;0.095242629030354006;-0.08530650133961068;-0.17318223961560097;-0.034010985576005535;0.26124440201883575;0.40100159388512047;0.035324242769089749;0.32880548008044985;-0.55291460757744559;0.49813862956097521;-0.48968631039129201;-0.54356035378559719;-0.62018212090863523;-0.75228319667504251;0.77928976135498362;0.80851379680571722;-0.8909966812218636;0.86650407396473406;-0.84193597718095436;-1.2648273213518082;-1.050314970063871;1.3815670807762275;1.3219785500946959;-1.5383944209564397;-1.6358406864686241;-1.3089469878698377;1.4952049387374502;1.6670466967633475;1.8714139867236157];
IW1_1 = [0.089406230958595359 0.25175096433129435 -0.44441359458541307 -0.062826807574751078 0.25430475148876819 0.5761533502540036 -0.55799437418726705 -0.22916877040861397 -0.11359230771484208 0.56068982639980336 -0.080113888287294238 0.26172781903187259 0.48121520685878122 -0.16719298941968008 0.13429396147706321 -0.071359410106754312 0.10499973336876206 -0.031585788932312078 0.51988129221491841 -0.53153885881926433 0.21623767088704593;0.40868647672868275 0.18390808051526122 -0.025151436268966453 -0.17938407989296334 -0.34944359426893429 0.59065706811427954 -0.039384814464087987 0.0088703798337802717 -1.5564958182968771 -0.2283263357477644 -0.10848624507179054 -0.14175055543390497 0.068173060954929698 -0.077479497331071734 0.058776174839663756 0.038372604405490077 -0.05072311986603107 0.15817034974098323 -0.145609512585681 -0.13694040639698316 -0.40433186757033718;-0.2686573161229 0.24188200823023512 -0.12223766300245623 0.43468543462068904 0.040862886875329699 0.18118276310874376 -0.45424116288800975 0.34000390521145785 -0.15285638773773724 0.26123534178296975 0.23767665636534507 -0.10825354253671379 0.41021888263542899 -0.5692977817747501 0.20384955694297913 -0.19192282230732033 -0.059916908652857787 -0.26775119825038796 0.21985129500999107 0.40794754012282275 0.25064216894209607;0.48805110082708203 -0.28896525090226122 -0.24291519156932384 0.30556576115123207 0.10930697843399564 -0.29050572639119787 -0.57153740131061626 0.40361009352329202 -0.29449676410652581 0.27718747669534194 -0.27639586888169604 0.099507509832113802 0.065116324820265151 -7.3459308676533663e-05 -0.086388069188490804 0.023231721604479456 -0.24540155507776973 -0.55980087868597139 -0.16076324789396551 0.24077868681805514 -0.3158334488659667;0.092852136346964376 -0.4846896094622456 -0.5535061981821302 -0.2360367014127584 -0.30412891641447676 -0.35393022088636095 0.25343163345796471 -0.026486212269513962 0.31994663541542329 0.29858408175856394 -0.36929774338400856 0.12501558145668171 -0.50927644621020118 -0.32521225627004757 -0.64916845366936815 0.11378083313739111 -0.56000562695992007 0.54243901964951913 -0.7812411150640014 0.27086273569097141 0.30427234948834464;-0.36679642683564329 -0.099988593852323032 0.07065035403006964 0.015361278378455998 0.55060092287721629 0.046044143659795075 -0.48181935421503719 0.027534204585566619 0.70990110904378501 0.0043812311709818912 -0.39504577744865799 -0.29087985615194889 0.39228311120548387 -0.0085853872305026238 -0.16915526042843138 -0.64847176874673929 0.12441392053579148 0.26927011250583349 0.068621255005886672 -0.62668202917774019 0.13506882104643669;-0.38141344389797688 0.50068287825062063 0.060629791460034235 0.25890195308511121 0.25361139588755793 0.069584160686308932 0.52597667709806384 -0.31403759774929324 0.44668927080881854 -1.0746074573586704 0.55876875770231349 0.13022454064302677 0.54587505106557599 0.5775340223904516 -0.38038901938972819 -0.079754226013536184 0.16915413830659298 0.47484318843255519 0.16303347750256983 0.76481358656951315 -0.0064448089435465011;-0.3007629898611367 0.14944343512688169 0.1338747064813047 0.12847672873669577 -0.11535759065782955 0.1091387059357819 -0.087678475761383504 -0.28422182577885008 -0.67518535004092406 0.85759501071076816 0.46610762466981764 0.32861002362332409 0.44232062593773086 -0.30498057990593475 -0.16528721590249526 -0.60465375218615969 0.26460087873620897 -0.46046079527142375 0.62934784568757951 0.0021202894440380694 -0.52346839120595279;0.47062347188750481 -0.16291086650639602 0.41072445232940585 -0.099729616828330384 0.31666520272835574 -0.28067482752832107 0.70375528698937551 0.36143614165380311 -0.0066805753175382936 0.086713012590389507 -0.52544824305108973 -0.50644513878609188 -0.66396606637269207 0.07529891284483467 0.031954894755064411 0.50720480690169534 0.38773154548176159 0.35748660017754558 -0.58569410424801138 -0.28089785672126966 -0.27114234787718683;0.49172473332258537 0.01802699484570721 0.22153255338273636 -0.45938536054535689 -0.016677280782486384 0.62941005428170282 -0.29529566380520605 -0.36162687395945159 -0.26535663571142937 0.013639275881611103 0.12471406245492317 -0.037875121783273485 0.24561749069743824 -0.33201621796956904 -0.30099877157453558 -0.15937311569256876 -0.12996444507136717 -0.23229751673605431 -0.07308399450981537 -0.73691713582483331 -0.32055900772729934;-0.41630652261164858 0.47611156747499256 -0.20277811361549281 0.29497567616533271 -0.22913319046190755 -0.54805348657652886 0.17135544208713621 -0.63819846863895502 -0.11919578839924097 -0.29263521454282898 -0.13580570221370925 0.34949311914436365 0.080667670494471946 -0.25209408954448542 0.55920434810496278 0.0091569437277439353 0.28056127367409667 0.28963150498116907 -0.6088268892355474 0.33713458787880629 -0.5985359180620422;0.46555520311924242 -0.40429102489162239 -0.60919273190836631 -0.41716460191523702 -0.050955141897071551 0.6310193916427782 0.2713428719988501 -0.21440487943482392 0.16103420268112842 0.4425307016622696 -0.20204200029924185 -0.16457588012202407 0.5848846552872089 -0.59992360952244317 -0.27549055876052853 -0.062488394366765232 -0.60385716695908065 -0.4570746545741104 -0.011889083418921073 -0.30395899649694946 0.063841237201408843;0.52251492123126098 0.31581160234968569 -0.060716448112768114 -0.35255261673699168 0.08138156128055439 0.69663422797767327 0.51494378063024948 0.39972137753713732 -0.079863193873332197 -0.253373963404528 0.14678455128420168 0.46548990958848907 -0.11013559641408971 0.2798068399656084 -0.094080635752986752 -0.55345790365090886 -0.12427829165820976 0.11155905273501759 -0.54531826723861732 -0.37743897827521505 -0.13118663032684924;0.024766597099246758 0.048646282857801579 0.4635094301692182 -0.010090527183211316 -0.44677867561459095 0.43223265557100021 0.12542627770481574 0.19227092065300125 0.46917464610361115 -0.24196175300250697 0.58114542907169353 0.29854565586687837 0.25644692747135539 0.54610527524802654 0.49421515922021908 0.1825519623251429 0.47952755192689961 0.26215848383588447 0.20276494281008808 -0.035028875342257113 0.41795406996105555;0.21004583632243923 0.40744069711646208 -0.24773162491496986 -0.18428082782500937 0.37723486364173259 -0.4918142073027415 0.15985278706383588 -0.20822229183963611 -0.11598514933935905 -0.12921061586591351 0.0091033515918456688 0.34317409535500926 0.25174080493577927 -0.020742842070322547 -0.14071514828580572 0.68486533365147029 -0.071169381441667789 -0.18868847718207363 0.020536750728483464 0.13422078204699489 0.20556290764709353;-0.48102160888430545 0.72895961647562946 0.19732512660963067 -0.56741816691292246 -0.1999679203118519 -0.31228633946808171 -0.1319923469834324 -0.30522156271989553 0.68706262505796434 -0.084994609038722913 0.25684744945724536 -0.080676742621177092 -0.21320161079459751 -0.36423395151470278 -0.087551340591020918 0.56097319066063278 -0.1181542319773508 -0.32665202983199682 -0.29061638147527163 0.40616455625261721 0.099383268993265078;-0.29029493159720604 0.070988948135471866 0.22640514913353518 0.4498159996591885 -0.23999727814426786 -0.49597910434124964 -0.074308206883451883 -0.078908917097681108 -0.069552140499045026 -0.73190534954539588 -0.83971746938287861 0.19351981973638879 -0.13290462516390833 -0.069681543322776401 -0.06397070755696499 -0.21872029287173739 0.047694468058640346 0.30879484583746158 0.25155471910364752 0.17147773503865457 -0.65409938260679379;0.65981348158456143 -0.91230085727734289 0.80608364613473193 0.36912250812024577 -0.37118658208991429 0.24113095979748728 0.27632549015631513 0.39142989780738208 -0.13047941511848626 0.11661406747343708 -0.22946004476073439 0.33845948137854837 0.34192246161576317 0.016310697441464423 0.59449362324885491 0.4950701881943409 -0.048035540730366338 0.0058799061400679718 -0.56512990348992242 -0.21134756282475459 0.58860218701671108;0.42533675270328331 -0.25485471103282908 -0.53375948269176887 0.25876219101720072 -0.42444808122033906 -0.46055318184988531 -0.17928225031510386 -0.32188230331022433 -0.65211647501514358 -0.33876626474993499 -0.36728625407400267 -0.33113451523265874 -0.0016754432860816657 0.11095795815699973 0.22644501836610934 -0.18810192210732662 0.32853621305764752 -0.13829249832987642 0.08181127444533208 -0.44795192569842329 -0.32406284861618706;0.33271281515534379 -0.020969115547628328 0.46000445088265285 -0.61060552089417119 0.024627071773020114 0.35182469383314879 -0.52235817772097171 0.64059899987885349 -0.08180915595472335 1.8530725695051429 -0.65322290674295003 -0.50940594117095928 0.0033675568493840846 -0.78813780900661712 -0.76162248950116673 -0.42832464521050351 -0.37349144186272054 -0.37591431847510987 0.08010006330563596 -1.2153588345447675 0.42342478843223308;0.062033825017067626 0.16375075092726563 -0.28262783787032136 -0.35265909225481312 -0.20835002553281032 -0.43034020395276773 -0.18663757975882811 0.16078710257615281 -0.026560579714849441 -0.29215171945029572 -0.072630659126160596 0.14709616056051622 0.20200465688176389 0.23129494579433571 0.22344137516333931 0.091982633331730096 0.12210401978917336 -0.36632430626325246 0.25689180945577211 -0.22149329180285354 -0.17389983967636563;-0.53581883112693252 0.21045024382431252 0.2254943873142165 -0.0070472725774616413 0.54020289752090889 0.33163067049923983 -0.35068342740512026 -0.3430938406059959 -0.22027310716278423 0.28238184279329259 -0.48324831582030731 0.24708962155542583 -0.17317297550188329 -0.67798967054501991 -0.32984798680792693 -0.55581064727412555 -0.12843271447544738 -0.36106563726916358 -0.14251146137776785 0.54815190627039623 -0.3348556173038636;0.40421872831745109 0.26615533571463917 -0.54900096142198485 0.23614138572365961 -0.20394491555586525 -0.093686597829044149 0.37937212278493615 -0.4355962957565524 -0.55871355676672996 -0.20456682027746959 -0.63016118477286343 -0.1104943866176427 -0.38950479476386113 -0.56928311101652862 -0.07173140931913681 0.045779551170407606 -0.67590834461592031 -0.2076872584142834 -0.26551510893224772 0.38911948279924569 -0.68319148586488221;0.45464129414574106 -0.41233458193114469 0.16555627413481921 -0.364545038001442 -0.27458765145400288 0.43902960235985583 0.17960594177782552 0.11074689521997119 -0.28873913680296592 0.023782452428664266 -0.10324156971356854 0.26506179863142904 0.20664228275816654 -0.5447299778718474 0.24629009809686456 0.081175217227015442 -0.68574429802501191 -0.076004087107817975 -0.16185375390319781 -0.12467537908194172 0.085629431258219008;0.11591795097858212 0.70778929259759449 0.56542085144102094 -0.47452821469782247 0.37736798332537314 0.26244749454508171 -0.19898250393086489 -0.084524754134921054 -0.17945892163880231 -0.5798923629371131 -0.063970895092857763 -0.048748260389817444 0.096699917836120988 -0.81126193059229323 -0.2013038773488382 -0.16339290615068719 0.31241209305541939 0.10288948417624301 -0.37273065807999023 -0.70053133170838466 -0.18236693146281785;0.33747463923608018 0.11692094089663167 0.50537863346995238 -0.44640939202923313 0.79310896220182625 0.28812745074807261 -0.028478571413444995 -0.39157944366109815 0.28077150149179597 0.13997910290163587 0.23418856787698478 0.37713109569250952 0.21597112055081222 -0.028354874006880651 -0.23712216482553322 -0.11979798164392262 -0.23478226161407567 -0.21864612084917964 -0.064334638227166202 0.66913440765673482 -0.49788983329813497;0.33598520464510234 -0.66130683779507826 -0.67250148084120431 0.19363127404688402 -0.23682752003692581 0.28447057970242401 0.30062359875133815 -0.17381665211196043 0.25064288628833437 0.23029182210201657 0.15532560191201064 0.27126788883433312 0.31618534250526092 0.61569370084363206 0.01120891032733741 0.27285559897199357 -0.50587103808521505 -0.368621051070609 0.36230486446155269 0.25720237286289799 0.46535177347952361;-0.076983952783220844 -0.28559714069263048 -0.086683722129721849 -0.087440503274306094 -0.14118560473154496 -0.45240907126473873 0.010216385305226755 -0.32490728471672825 0.54899107296981819 0.31452188115517038 0.23443449064069111 -0.31269310631952835 0.19701499527341021 -0.40615369651150068 0.50343062114420511 -0.29066640718513009 0.22032301606463767 0.11753960329484603 0.38191692604635658 -0.066867623913816371 0.26717876951993053;0.50882066013053329 -0.29517064367054441 -0.35959141185834542 -0.098354877170730659 -0.14693016128628436 0.22036019318590921 0.043114850205510341 -0.15866450695924736 0.12771285087398559 -0.47956728267026394 -0.050640307393986499 0.558447578356843 0.68744337967085467 0.51729381461315915 0.17868656281426065 0.4285766229690644 -0.39293504251285366 -0.25320996166713922 -0.061962402195860453 -0.22946938290265587 0.37916763820505756;-0.29635358687956881 0.066549336543875098 0.041574887889852585 -0.00069638238987325147 0.18479224073348369 -0.18486538524757298 0.36180712343950833 0.23743632695202249 0.63576585905612837 0.082476160857934203 -0.27250833755639237 0.5727253735953981 0.63927667126287524 0.55360276733664582 -0.46476966497472821 0.11852195426534815 0.26689327969161958 -0.31677240462173528 -0.32197546139277844 -0.25080285693222376 -0.058966730887646188;0.25954397323109674 -0.16662372298595476 -0.40322019247986374 0.078190162573973321 0.23684658774846548 -0.8471569278409502 -0.10289864819009735 -0.66625190050377425 0.022110160207973302 0.17407514130301222 0.088363551920490321 0.24206463759841476 0.34517281786206638 0.060157954272218317 0.42446682572459349 0.3880617512188631 0.08654283949166619 -0.21692750968663535 -0.15353117638906685 0.62210628768329623 0.1335756758557389;-0.5284323437977122 -0.079746110823455396 0.19720121859915507 -0.078165473983430905 -0.083000564969550134 0.30903992092167093 -0.21740957876781364 -0.12270599482691824 0.12683140037593238 0.4807078625148693 -0.24779783339624406 -0.3077737455447086 -0.32494629411793885 -0.13048664029569573 -0.15690748246580408 -0.37608952224984754 -0.11307592896748353 -0.065755661025180059 -0.43883337114102816 -0.48233970123820524 -0.22935719834187754;-0.21832855185260058 0.23046823872546549 -0.023970485424972949 0.70326089877183995 0.32992785608475012 0.027262221735718351 -0.50224669384356624 0.094807064536442082 0.3211230700968607 -0.066068211796975099 -0.46403408052684508 -0.35315683530140712 0.22573933114682679 0.19156334614923073 0.4097246330255962 -0.15540781677796292 0.30456409737308304 -0.34813847629214145 0.073637538798890206 -0.30419002553949748 -0.22285324533185158;-0.44730916192958842 -0.022832390870928268 -0.14889949691966808 -0.21921316105884059 0.078790909894072919 0.011713390790551989 0.55221385874180196 -0.36894598814560681 0.47956777317365201 0.4228762983337504 0.079156906851742356 -0.36576630299418755 0.51336447660129414 0.20989186398872534 -0.073497930896662983 -0.58170113876122886 -0.045953391688837386 -0.050834255244231311 -0.19462551760534691 0.78698222171325494 0.32882671753307491;-0.40785130992710278 0.75459441349168732 -0.4692125497039939 0.33448983398701909 -0.38111435425744217 0.57319808164558783 -0.16227541690379702 0.61836644644222094 -0.36878804427845163 -0.78263241777242731 -0.19175418447150522 -0.37461660599030394 -0.27646985552379288 0.29832910443897914 0.053294906467564823 -0.12650693677073233 -0.26347992671548659 -0.15109511434691392 0.037784807910571663 0.041378650851478703 0.48543263247641444;0.45825991352391005 -0.26923535233512774 -0.56075259615465955 -0.5628798226084003 -0.42679852572497839 0.079162624881006449 -0.55064555005011384 0.54158045262321808 0.19941520569363136 0.17063142053650537 0.23801177361496961 -0.26713164733500883 -0.31933221894734781 0.18995135124785159 -0.4826805820925355 -0.14015251033865905 -0.50045309391459503 -0.41535648107530004 0.36102640616488024 0.19400057459535505 0.3302216983401588;0.32981789060530881 0.0031138993843791707 0.30617736146287627 0.0081144159863948823 -0.0033568440704799946 0.17172597566945103 -0.17541802998411962 0.29226637566203623 -0.071106275126562313 -0.90499529898108466 0.25122415943065851 0.49032512359334895 0.39456093311019047 0.40129885261615356 0.16925606442128097 0.17158040655993864 0.069001218020875027 -0.24215169349693882 0.88785453804388337 0.86624868779186004 0.27613361710488787;-0.28598654417588859 0.61657402226961244 0.28760346753752913 -0.069753525034932803 -0.082144985429013467 0.62017347933548195 -0.2995844998021488 -0.072340485801689933 -0.23547088314116271 -0.24217856474081842 0.11630087296958755 0.52039579921572798 -0.37888791663006954 0.11723600962701031 -0.35504894909573093 0.74955801128803612 -0.4653203289438147 -0.24288791650519553 -0.263121742281895 0.022969125465601044 0.12349063119514478;0.36721920933141072 -0.067313860583005453 0.22717191721010252 0.34352862728030026 0.0098742357474403269 0.50514828956813185 0.05419293420581351 -0.013510421240176044 0.042164309255071357 0.095064480616700711 0.20564957537028222 0.1750265175159943 0.13204749695405926 -0.40761392172275041 -0.3422990674482918 -0.29259284353008913 0.054976628810988346 0.38042469257775197 -0.21598161929196227 -0.099038653004000596 0.3347780761313861;-0.25738072122030425 -0.17898300808702275 -0.28222080045489417 -0.72117917942452858 -0.072527078551703983 -0.054460414102565101 -0.11765267171551824 -0.43920490268974194 -0.43541792692210479 -0.98852294227986548 0.22123840514439216 0.12721129895138367 -0.15345171228790705 -0.14973925531236729 -0.15813840266238344 -0.53148051138738428 -0.11993828075739948 -0.33739291970899077 0.20069609089495413 1.0118199770044158 0.0071078791761356661;-0.15331067378249913 -0.09945406876428875 0.12691214412981583 0.029107455840148316 -0.22472206242207737 -0.19867655663667311 0.46921539147933533 0.61349869718290417 -0.47796146386766719 -0.13574932479225202 -0.48147679394911597 -0.0091589150492732644 0.13423191701798232 -0.79439234523820146 0.33180752249857653 0.030014761367723637 -0.45026500371421024 0.22873492632790338 0.43973152559937928 0.016052186799710939 -0.29624188206117519;0.13677469757047414 -0.35445954730775403 0.038262953445015804 0.15630304316671445 -0.074584414451221243 -0.39868192044859313 0.29411292500808334 0.69013525065692016 -0.39185744834517033 0.3154147911073254 -0.31547945354471013 0.15454394094590157 -0.019288612347217883 -0.57784658710028813 -0.45000780127016632 -0.19291008139341678 0.26891571442077711 -0.63776810640652237 0.2168763929456258 0.42309376629231404 -0.27687971529461247;0.1047951159681903 -0.29827357077753136 -0.21029219721305556 0.062768825615456714 0.10584509188870606 0.30956830653200829 -0.46091161149639742 0.078063383293647676 0.28431275948112256 0.039710888426303825 0.31417639899111161 -0.03273698402631707 -0.88999941643559288 0.88615739453321729 -0.26677022476731349 0.25075560671354219 0.06419129691715611 -0.47511608160921814 0.33059266395797376 0.45817763916700965 0.17078371961477615;0.41761238502388831 0.23327240610801048 -0.024755145267365209 -0.15340603363014446 -0.64099969258596168 -0.61899088818696724 0.23431751932229736 -0.33525437726506535 0.34848433930872535 0.0078628087859842453 -0.25052206756710871 -0.50966473786174427 0.25271169178236635 -0.27479917194241915 -0.49580084225795151 0.34234305186025532 0.1330883143276835 -0.50877512397355262 -0.51891262910357439 0.23472909481585719 -0.43045692058938995;-0.25291096394815432 0.43991090688754209 0.21232693977739855 -0.025693071705312123 0.53391422670201094 0.1818742311385271 -0.12574629445041424 0.34586021967858172 -0.3114835237068726 0.2427380236334083 -0.66818868513012586 0.26018677123491074 -0.30801081321958518 -0.45482044412901229 -0.22595139161844285 0.24178162625459795 0.40386848205771958 0.52285354578974119 0.25738106554468987 -0.13406851312910459 0.22829443062399293;0.16903401876098667 -0.61425527241293865 -0.57910970025968456 -0.30298274771238853 0.082788233048151194 -0.18452380937167157 -0.0053198699231129538 -0.33851130077817093 -0.22913974418873384 -0.21777287764952952 0.076482566664855894 0.063215808665634865 -0.49272909842892293 -0.2321208512524835 -0.33901535011974904 -0.67807824164422437 0.11791394181595712 0.051130214737706944 -0.13718226042256587 0.27132237978359014 0.47248730049667242;0.035526654090561563 0.22022305618517596 -0.51040066423216501 0.20208503169795802 0.4190299459565367 0.48532527940783876 -0.078892689259865506 -0.38666281872245217 0.65321657463700222 0.42265422051512169 0.021975343775452204 -0.33909157137171747 -0.11009656077520455 -0.10169636657187396 0.21767821917947311 -0.090098961983870185 -0.060541046775736233 -0.067821745921579663 -0.30550904933737105 1.0311354194967932 -0.90919111143256659;0.11853515923171534 0.297992300775758 -0.39097928123156234 0.096266027984702088 0.15122739561810161 0.35178584280841868 0.64532284337722368 -0.058417387272583235 -0.59045686809163689 0.44799568446663879 -0.33453129974954599 0.0083439520600404674 -0.37226443678155069 0.073641816772359855 -0.19811168715682895 -0.40078522656911419 0.091026177080985898 -0.062579727543030039 -0.030363508967675094 -0.40089978881506561 -0.086894591671317134;0.27202183578956118 -0.60171174225924851 -0.43437354426868535 0.30899243315449998 -0.36442765194222715 -0.048667965130841512 -0.14330871204847273 -0.41575935815460596 0.030790256621816454 -0.30598453386306007 0.2010927278853844 -0.36612271338936808 -0.37078226326436392 -0.55144980678378352 -0.46446922593528045 0.34172660170654878 -0.033621739579149698 -0.35258161258552789 0.37970357935409565 -0.48921840384423282 -0.52192849187520074;0.3221989249998487 -0.25476899744622766 -0.49750616764889 0.20591871012789534 -0.24026943581300464 -0.2228604432536484 0.44259069566837106 -0.67898099862378458 -0.26196480551579315 0.1899508554853003 -0.11548910133093047 -0.57815843529847777 -0.33168171408802871 0.37115356508291703 -0.35747542777654034 0.37161474316859544 0.033313737988708972 0.0051366703771499895 -0.41769746244127748 0.43715507019675187 0.33482271564238669];

% Layer 2
b2 = [-0.89999737357350129;0.52960545798271497;-0.49262044913676817;-0.54889701191971496;-0.45895180120823842;-0.24160859482002869];
LW2_1 = [1.0517683545509056 -0.012958953109675413 -0.39330213644305562 -0.17729455834800778 -0.29232076742151036 -0.065843377071485368 0.11914608302195981 -0.099425947462239733 -0.32018630026147726 0.35376328033032034 -0.67710742597644358 -0.48262899961465816 -0.77411485458078844 0.21849837992756729 -0.02659297495530475 -0.058741369047340883 -0.76980386456995642 -0.41435066318754643 -0.10588296576126494 0.33595111867662281 0.22145432848498064 0.71880889156880057 0.42050047704236615 0.030259795051520374 -0.50799418023969478 0.028476025082195398 -0.41212715769929742 -0.022805122456001636 0.46828930590586709 -0.31273351607123451 0.91152435796376174 -0.22331597729532554 -0.34206718421199589 0.17960723315045529 0.13317295450713748 -0.19334257208035477 -0.45281013227114658 -0.073009337078883157 0.27681225482870714 -0.83806225914964427 0.57034171113074894 0.22035889600382172 0.27926036637625495 0.79630343794156799 0.74575181424932468 0.019791964144482595 0.41587867245168747 -0.48703513933342318 0.54195430454578863 0.61101518311208625;-0.89971055932599775 0.23034884763875438 -0.45934143148265005 0.21749020932954233 0.50926024662333114 0.44842260005936219 -0.83723702202331829 0.73028511186239942 0.091615052627051496 0.095580570718929239 -0.37871685913207254 0.47122567366959539 0.26563876447265167 0.21923579664281573 0.044693272699048416 0.0056437407530125702 0.30021176912625452 0.98416463206283034 0.34992746410740738 -0.74374248642577256 -0.06467138813530697 -0.74706428279028936 0.041644861589972229 -0.39444048434783702 0.65004871692064337 -0.12895209448377967 0.54616684982880914 0.012913030165338159 -0.58698774851077551 -0.6065273989404224 -0.54324896161380698 0.38774875426848215 0.21168078417923286 0.78657945096887316 -0.13248250605337719 0.23077174349040999 0.84806175509191539 0.66577575129998745 0.24087225439313736 0.22609754227835058 0.20735963777887093 -0.38429292642627955 0.15675145419273223 0.66945685312337366 0.78701021844005681 -0.30024091753702287 0.11149684403973562 0.33313261557275808 0.133527985517817 0.33052139750335396;0.75869812216269839 0.35569728538407125 0.19983120544779981 0.57405008150724934 -0.22929268611981626 -0.10606682987922861 0.66179983714567758 -0.37278400363553554 0.2828213370640526 -0.89039530408691103 0.20744225389409185 0.022713851206020957 -0.59233636374506016 0.3440182082509986 0.52596195362635179 0.34343970295136511 0.3703530154864848 -0.60050969500059936 0.54664661116031432 0.24552066191846794 0.47296677135467946 -0.64942699063287679 -0.055892394556716747 0.33705089027236246 -0.49211234262264036 0.49142223372099686 -0.35159186087490851 0.6490611487510809 -0.073955317874946358 -0.12042905803080863 -0.72432642394328239 0.51816115332687929 0.13301043964574388 -0.20202268379267957 -0.15792788272027578 -0.33923331090294606 -0.22066661064115556 0.23618153931857513 0.23660204341264832 0.15927224811008778 -0.22229460794373651 0.025496057035234866 -0.021595139550057381 -0.36419280061540177 0.079153098574132122 0.24624778554708956 -0.42000882663525818 0.60969465857564809 0.0098779138134203158 -1.045117186292454;-0.29293130483747737 0.68699873552964474 -0.40827684955354304 -0.21557562166362293 -0.43788422998145526 0.14577702599644282 0.54605495048353181 0.71476623631946568 0.32373987468134746 -0.13724493946607039 -0.17597637608478697 0.79202170976595865 0.70371480876003045 -0.57521757591884481 -0.58772125679326659 0.55056012225555351 0.72899339569594546 0.67970472276709015 -0.63079276950985641 -0.3352563936211071 0.20378123719878874 0.033372934815670836 0.20753956846410088 0.35002970845837161 0.55281648644882286 -0.42167190559098311 0.16035848542311176 -0.66394423325678786 0.051061439175779773 -0.45262689011310375 -0.1392417526178952 -0.43051803275955119 0.86720296013226394 -0.63259237425389758 0.26395735580249147 -0.64752355455954858 -0.45313743782797794 -0.59504979853413797 -0.099412780146483817 0.033561791043520389 -0.49419041743178588 -0.27172728488180936 0.99487323365793678 -0.068042918036076136 -0.34984729407419435 0.52207665686305538 -0.63032897169228086 -0.53640067673180569 -0.35711106614167576 0.17072935981041432;-0.11716020121843393 0.45177799396781321 0.51795963013877944 0.78164827618428334 0.080755611623170048 -0.32855758029240245 -0.50579817590023279 -0.52632652817839709 -0.76508882476560736 0.42879523609747494 0.27436794443837631 -0.79555678588449397 -0.54690317185161774 -0.1488621914677046 0.093489617394494323 -0.068677731231083103 0.16550232603757567 -0.43414688208853064 0.12957744938418855 0.25839852369805871 0.53626213570326819 0.20482770936733494 -0.84159206428512578 -0.31422058800828623 -0.56974073905247424 0.038134674521032287 0.10485323814963146 0.00016650961664510522 -0.73316232612740917 0.63943175403128527 0.36992816567874504 -0.42572868705085076 -0.37329488499130603 1.050110978923793 -0.84567444056065399 0.1635033744762717 -0.10674932582991492 0.7547991181305993 0.18948473109490588 0.25678799411538389 1.2471406876696922 -0.26922172766864888 -0.68290344976979678 -0.64629854964159517 -0.3263886849381899 -0.085942368041992498 -0.15084966201867173 0.22172285230698749 -0.19317895084449554 -0.20242736788896182;0.84701906023510287 -1.4581926128824394 -0.22779174999510293 0.082356167588157281 -0.075029364426353259 0.65162051810284582 0.054586107736243582 -0.64473772476732838 0.32215774692672039 -0.068791955224884349 -0.67140059461200441 -0.21267176041618788 -0.70811718211490815 -0.23214601790503059 -0.35628580152281386 0.54741636498569446 0.16203812708472132 0.69251308372959486 0.85777757258781095 0.017148723870887922 0.053056404196750992 -0.43027681716317129 -0.4646115919065581 0.048356420337956632 0.41306170807231274 0.47900036859962103 0.37511415700529527 0.47312051150147255 0.16458139844533598 -0.46291671882253033 0.22921921429078901 -0.48438212062387465 -0.36953155254396935 0.27420964384855068 0.35748239328558634 -0.56981571336140913 -0.3733247265776321 0.64839820735035392 0.21451201073274889 0.57911603813510903 0.34486340142291977 0.17391522823885669 0.33447169523358183 0.56418772411567586 1.0667159097390329 -0.16865714610625163 0.4683414593910501 0.2016522442587739 0.39338495275654956 -0.16063163677574493];

% Output 1
y1_step2.ymin = -1;
y1_step2.gain = [2;2;2;2;2;2];
y1_step2.xoffset = [0;0;0;0;0;0];
y1_step1.xrows = 7;
y1_step1.keep = [1 2 3 4 6 7];
y1_step1.remove = 5;
y1_step1.constants = 0;

% ===== SIMULATION ========

% Dimensions
Q = size(x1,1); % samples

% Input 1
x1 = x1';
xp1 = removeconstantrows_apply(x1,x1_step1);
xp1 = mapminmax_apply(xp1,x1_step2);

% Layer 1
a1 = tansig_apply(repmat(b1,1,Q) + IW1_1*xp1);

% Layer 2
a2 = repmat(b2,1,Q) + LW2_1*a1;

% Output 1
y1 = mapminmax_reverse(a2,y1_step2);
y1 = removeconstantrows_reverse(y1,y1_step1);
y1 = y1';
end

% ===== MODULE FUNCTIONS ========

% Map Minimum and Maximum Input Processing Function
function y = mapminmax_apply(x,settings)
y = bsxfun(@minus,x,settings.xoffset);
y = bsxfun(@times,y,settings.gain);
y = bsxfun(@plus,y,settings.ymin);
end

% Remove Constants Input Processing Function
function y = removeconstantrows_apply(x,settings)
y = x(settings.keep,:);
end

% Sigmoid Symmetric Transfer Function
function a = tansig_apply(n,~)
a = 2 ./ (1 + exp(-2*n)) - 1;
end

% Map Minimum and Maximum Output Reverse-Processing Function
function x = mapminmax_reverse(y,settings)
x = bsxfun(@minus,y,settings.ymin);
x = bsxfun(@rdivide,x,settings.gain);
x = bsxfun(@plus,x,settings.xoffset);
end

% Remove Constants Output Reverse-Processing Function
function x = removeconstantrows_reverse(y,settings)
Q = size(y,2);
x = nan(settings.xrows,Q,'like',y);
x(settings.keep,:) = y;
x(settings.remove,:) = repmat(settings.constants,1,Q);
end
